digraph Tree {
node [shape=box, style="filled", color="black"] ;
0 [label="rating_count <= 10.0\nmse = 15.541\nsamples = 1258\nvalue = 8.322", fillcolor="#fbece1"] ;
1 [label="rating_count <= 5.325\nmse = 4.338\nsamples = 874\nvalue = 6.274", fillcolor="#fcf1e9"] ;
0 -> 1 [labeldistance=2.5, labelangle=45, headlabel="True"] ;
2 [label="rating_count <= 3.325\nmse = 1.48\nsamples = 257\nvalue = 3.582", fillcolor="#fef8f4"] ;
1 -> 2 ;
3 [label="rating_count <= 2.325\nmse = 0.321\nsamples = 106\nvalue = 2.291", fillcolor="#fefcfa"] ;
2 -> 3 ;
4 [label="rating_count <= 1.325\nmse = 0.08\nsamples = 56\nvalue = 1.8", fillcolor="#fffdfc"] ;
3 -> 4 ;
5 [label="mse = 0.0\nsamples = 5\nvalue = 1.0", fillcolor="#ffffff"] ;
4 -> 5 ;
6 [label="mse = 0.019\nsamples = 51\nvalue = 1.879", fillcolor="#fffdfb"] ;
4 -> 6 ;
7 [label="rating_count <= 2.86\nmse = 0.019\nsamples = 50\nvalue = 2.841", fillcolor="#fefaf7"] ;
3 -> 7 ;
8 [label="mse = 0.004\nsamples = 28\nvalue = 2.728", fillcolor="#fefaf8"] ;
7 -> 8 ;
9 [label="mse = 0.001\nsamples = 22\nvalue = 2.985", fillcolor="#fefaf7"] ;
7 -> 9 ;
10 [label="rating_count <= 4.325\nmse = 0.304\nsamples = 151\nvalue = 4.488", fillcolor="#fdf6f1"] ;
2 -> 10 ;
11 [label="rating_count <= 3.82\nmse = 0.015\nsamples = 61\nvalue = 3.834", fillcolor="#fdf8f3"] ;
10 -> 11 ;
12 [label="mse = 0.002\nsamples = 28\nvalue = 3.714", fillcolor="#fef8f4"] ;
11 -> 12 ;
13 [label="mse = 0.004\nsamples = 33\nvalue = 3.935", fillcolor="#fdf7f3"] ;
11 -> 13 ;
14 [label="rating_count <= 4.87\nmse = 0.013\nsamples = 90\nvalue = 4.931", fillcolor="#fdf5ef"] ;
10 -> 14 ;
15 [label="mse = 0.005\nsamples = 22\nvalue = 4.742", fillcolor="#fdf5f0"] ;
14 -> 15 ;
16 [label="mse = 0.001\nsamples = 68\nvalue = 4.992", fillcolor="#fdf5ef"] ;
14 -> 16 ;
17 [label="rating_count <= 7.5\nmse = 1.252\nsamples = 617\nvalue = 7.395", fillcolor="#fceee5"] ;
1 -> 17 ;
18 [label="rating_count <= 6.5\nmse = 0.293\nsamples = 282\nvalue = 6.305", fillcolor="#fcf1e9"] ;
17 -> 18 ;
19 [label="rating_count <= 5.875\nmse = 0.016\nsamples = 178\nvalue = 5.898", fillcolor="#fcf2eb"] ;
18 -> 19 ;
20 [label="mse = 0.006\nsamples = 71\nvalue = 5.756", fillcolor="#fcf3eb"] ;
19 -> 20 ;
21 [label="mse = 0.001\nsamples = 107\nvalue = 5.993", fillcolor="#fcf2ea"] ;
19 -> 21 ;
22 [label="mse = -0.0\nsamples = 104\nvalue = 7.0", fillcolor="#fcefe6"] ;
18 -> 22 ;
23 [label="rating_count <= 8.5\nmse = 0.215\nsamples = 335\nvalue = 8.313", fillcolor="#fbece1"] ;
17 -> 23 ;
24 [label="mse = 0.0\nsamples = 230\nvalue = 8.0", fillcolor="#fbede2"] ;
23 -> 24 ;
25 [label="mse = 0.0\nsamples = 105\nvalue = 9.0", fillcolor="#fbeade"] ;
23 -> 25 ;
26 [label="rating_count <= 14.5\nmse = 9.778\nsamples = 384\nvalue = 12.982", fillcolor="#f9e0ce"] ;
0 -> 26 [labeldistance=2.5, labelangle=-45, headlabel="False"] ;
27 [label="rating_count <= 12.5\nmse = 1.234\nsamples = 311\nvalue = 11.9", fillcolor="#f9e2d2"] ;
26 -> 27 ;
28 [label="rating_count <= 11.5\nmse = 0.2\nsamples = 225\nvalue = 11.276", fillcolor="#f9e4d5"] ;
27 -> 28 ;
29 [label="mse = 0.0\nsamples = 163\nvalue = 11.0", fillcolor="#fae5d6"] ;
28 -> 29 ;
30 [label="mse = 0.0\nsamples = 62\nvalue = 12.0", fillcolor="#f9e2d2"] ;
28 -> 30 ;
31 [label="rating_count <= 13.5\nmse = 0.249\nsamples = 86\nvalue = 13.535", fillcolor="#f8decb"] ;
27 -> 31 ;
32 [label="mse = 0.0\nsamples = 40\nvalue = 13.0", fillcolor="#f8e0ce"] ;
31 -> 32 ;
33 [label="mse = 0.0\nsamples = 46\nvalue = 14.0", fillcolor="#f8ddc9"] ;
31 -> 33 ;
34 [label="rating_count <= 37.5\nmse = 19.968\nsamples = 73\nvalue = 17.589", fillcolor="#f6d3bb"] ;
26 -> 34 ;
35 [label="rating_count <= 18.5\nmse = 6.352\nsamples = 72\nvalue = 17.153", fillcolor="#f6d5bc"] ;
34 -> 35 ;
36 [label="rating_count <= 16.5\nmse = 0.875\nsamples = 56\nvalue = 16.018", fillcolor="#f7d8c1"] ;
35 -> 36 ;
37 [label="mse = 0.225\nsamples = 47\nvalue = 15.66", fillcolor="#f7d9c3"] ;
36 -> 37 ;
38 [label="mse = 0.099\nsamples = 9\nvalue = 17.889", fillcolor="#f6d3b9"] ;
36 -> 38 ;
39 [label="rating_count <= 21.0\nmse = 5.234\nsamples = 16\nvalue = 21.125", fillcolor="#f4caac"] ;
35 -> 39 ;
40 [label="mse = 0.222\nsamples = 9\nvalue = 19.333", fillcolor="#f5cfb3"] ;
39 -> 40 ;
41 [label="mse = 2.245\nsamples = 7\nvalue = 23.429", fillcolor="#f3c4a2"] ;
39 -> 41 ;
42 [label="mse = 0.0\nsamples = 1\nvalue = 49.0", fillcolor="#e58139"] ;
34 -> 42 ;
}